[
  {
    "detector":"PcaADDetector",
    "precision":1.0,
    "recall":0.063933,
    "f1":0.120182,
    "auc_roc":null,
    "n_predicted":145,
    "n_actual":2268,
    "true_positives":145,
    "false_positives":0,
    "true_negatives":20415,
    "false_negatives":2123,
    "false_positive_rate":0.0,
    "false_negative_rate":0.936067,
    "model":"PcaAD"
  },
  {
    "detector":"OCSVMDetector",
    "precision":0.427807,
    "recall":0.21164,
    "f1":0.283186,
    "auc_roc":0.662191,
    "n_predicted":1122,
    "n_actual":2268,
    "true_positives":480,
    "false_positives":642,
    "true_negatives":19773,
    "false_negatives":1788,
    "false_positive_rate":0.031447,
    "false_negative_rate":0.78836,
    "model":"OCSVM"
  },
  {
    "detector":"LevelShiftADDetector",
    "precision":0.236066,
    "recall":0.031746,
    "f1":0.055966,
    "auc_roc":0.510166,
    "n_predicted":305,
    "n_actual":2268,
    "true_positives":72,
    "false_positives":233,
    "true_negatives":20182,
    "false_negatives":2196,
    "false_positive_rate":0.011413,
    "false_negative_rate":0.968254,
    "model":"LevelShiftADDetector"
  },
  {
    "detector":"VolatilityShiftADDetector",
    "precision":0.179177,
    "recall":0.032628,
    "f1":0.055203,
    "auc_roc":0.562024,
    "n_predicted":413,
    "n_actual":2268,
    "true_positives":74,
    "false_positives":339,
    "true_negatives":20076,
    "false_negatives":2194,
    "false_positive_rate":0.016605,
    "false_negative_rate":0.967372,
    "model":"VolatilityShiftADDetector"
  },
  {
    "detector":"QuantileADDetector",
    "precision":0.422026,
    "recall":0.422399,
    "f1":0.422212,
    "auc_roc":0.689362,
    "n_predicted":2270,
    "n_actual":2268,
    "true_positives":958,
    "false_positives":1312,
    "true_negatives":19103,
    "false_negatives":1310,
    "false_positive_rate":0.064266,
    "false_negative_rate":0.577601,
    "model":"QuantileADDetector"
  },
  {
    "detector":"ECODDetector",
    "precision":0.492063,
    "recall":0.246032,
    "f1":0.328042,
    "auc_roc":0.792536,
    "n_predicted":1134,
    "n_actual":2268,
    "true_positives":558,
    "false_positives":576,
    "true_negatives":19839,
    "false_negatives":1710,
    "false_positive_rate":0.028215,
    "false_negative_rate":0.753968,
    "model":"ECODDetector"
  },
  {
    "detector":"COPODDetector",
    "precision":0.781498,
    "recall":0.391093,
    "f1":0.521305,
    "auc_roc":0.810905,
    "n_predicted":1135,
    "n_actual":2268,
    "true_positives":887,
    "false_positives":248,
    "true_negatives":20167,
    "false_negatives":1381,
    "false_positive_rate":0.012148,
    "false_negative_rate":0.608907,
    "model":"COPODDetector"
  },
  {
    "detector":"InterQuartileRangeAD",
    "precision":0.581081,
    "recall":0.587743,
    "f1":0.584393,
    "auc_roc":0.777867,
    "n_predicted":2294,
    "n_actual":2268,
    "true_positives":1333,
    "false_positives":961,
    "true_negatives":19454,
    "false_negatives":935,
    "false_positive_rate":0.047073,
    "false_negative_rate":0.412257,
    "model":"InterQuartileRangeAD"
  },
  {
    "detector":"LOFDetector",
    "precision":0.126872,
    "recall":0.063492,
    "f1":0.084631,
    "auc_roc":0.506101,
    "n_predicted":1135,
    "n_actual":2268,
    "true_positives":144,
    "false_positives":991,
    "true_negatives":19424,
    "false_negatives":2124,
    "false_positive_rate":0.048543,
    "false_negative_rate":0.936508,
    "model":"LOFDetector"
  },
  {
    "detector":"ThresholdADDetector",
    "precision":0.991342,
    "recall":0.20194,
    "f1":0.335531,
    "auc_roc":0.832153,
    "n_predicted":462,
    "n_actual":2268,
    "true_positives":458,
    "false_positives":4,
    "true_negatives":20411,
    "false_negatives":1810,
    "false_positive_rate":0.000196,
    "false_negative_rate":0.79806,
    "model":"ThresholdADDetector"
  }
]