[
  {
    "detector":"PcaADDetector",
    "precision":1.0,
    "recall":0.131579,
    "f1":0.232558,
    "auc_roc":null,
    "n_predicted":10,
    "n_actual":76,
    "true_positives":10,
    "false_positives":0,
    "true_negatives":932,
    "false_negatives":66,
    "false_positive_rate":0.0,
    "false_negative_rate":0.868421,
    "model":"PcaAD"
  },
  {
    "detector":"OCSVMDetector",
    "precision":0.65,
    "recall":0.513158,
    "f1":0.573529,
    "auc_roc":0.785154,
    "n_predicted":60,
    "n_actual":76,
    "true_positives":39,
    "false_positives":21,
    "true_negatives":911,
    "false_negatives":37,
    "false_positive_rate":0.022532,
    "false_negative_rate":0.486842,
    "model":"OCSVM"
  },
  {
    "detector":"LevelShiftADDetector",
    "precision":0.490566,
    "recall":0.342105,
    "f1":0.403101,
    "auc_roc":0.656568,
    "n_predicted":53,
    "n_actual":76,
    "true_positives":26,
    "false_positives":27,
    "true_negatives":905,
    "false_negatives":50,
    "false_positive_rate":0.02897,
    "false_negative_rate":0.657895,
    "model":"LevelShiftADDetector"
  },
  {
    "detector":"VolatilityShiftADDetector",
    "precision":0.134259,
    "recall":0.381579,
    "f1":0.19863,
    "auc_roc":0.690775,
    "n_predicted":216,
    "n_actual":76,
    "true_positives":29,
    "false_positives":187,
    "true_negatives":745,
    "false_negatives":47,
    "false_positive_rate":0.200644,
    "false_negative_rate":0.618421,
    "model":"VolatilityShiftADDetector"
  },
  {
    "detector":"QuantileADDetector",
    "precision":0.068627,
    "recall":0.092105,
    "f1":0.078652,
    "auc_roc":0.499781,
    "n_predicted":102,
    "n_actual":76,
    "true_positives":7,
    "false_positives":95,
    "true_negatives":837,
    "false_negatives":69,
    "false_positive_rate":0.101931,
    "false_negative_rate":0.907895,
    "model":"QuantileADDetector"
  },
  {
    "detector":"ECODDetector",
    "precision":0.431373,
    "recall":0.289474,
    "f1":0.346457,
    "auc_roc":0.934098,
    "n_predicted":51,
    "n_actual":76,
    "true_positives":22,
    "false_positives":29,
    "true_negatives":903,
    "false_negatives":54,
    "false_positive_rate":0.031116,
    "false_negative_rate":0.710526,
    "model":"ECODDetector"
  },
  {
    "detector":"COPODDetector",
    "precision":0.470588,
    "recall":0.315789,
    "f1":0.377953,
    "auc_roc":0.91453,
    "n_predicted":51,
    "n_actual":76,
    "true_positives":24,
    "false_positives":27,
    "true_negatives":905,
    "false_negatives":52,
    "false_positive_rate":0.02897,
    "false_negative_rate":0.684211,
    "model":"COPODDetector"
  },
  {
    "detector":"InterQuartileRangeAD",
    "precision":1.0,
    "recall":0.197368,
    "f1":0.32967,
    "auc_roc":0.598684,
    "n_predicted":15,
    "n_actual":76,
    "true_positives":15,
    "false_positives":0,
    "true_negatives":932,
    "false_negatives":61,
    "false_positive_rate":0.0,
    "false_negative_rate":0.802632,
    "model":"InterQuartileRangeAD"
  },
  {
    "detector":"LOFDetector",
    "precision":0.882353,
    "recall":0.592105,
    "f1":0.708661,
    "auc_roc":0.844519,
    "n_predicted":51,
    "n_actual":76,
    "true_positives":45,
    "false_positives":6,
    "true_negatives":926,
    "false_negatives":31,
    "false_positive_rate":0.006438,
    "false_negative_rate":0.407895,
    "model":"LOFDetector"
  },
  {
    "detector":"ThresholdADDetector",
    "precision":1.0,
    "recall":0.263158,
    "f1":0.416667,
    "auc_roc":0.965764,
    "n_predicted":20,
    "n_actual":76,
    "true_positives":20,
    "false_positives":0,
    "true_negatives":932,
    "false_negatives":56,
    "false_positive_rate":0.0,
    "false_negative_rate":0.736842,
    "model":"ThresholdADDetector"
  }
]