[
  {
    "model":"PcaAD",
    "precision":1.0,
    "recall":0.042254,
    "f1":0.081081,
    "auc_roc":null,
    "n_predicted":3,
    "n_actual":71,
    "true_positives":3,
    "false_positives":0,
    "true_negatives":232,
    "false_negatives":68,
    "false_positive_rate":0.0,
    "false_negative_rate":0.957746,
    "detector":"PcaADDetector"
  },
  {
    "model":"OCSVM",
    "precision":0.503597,
    "recall":0.985915,
    "f1":0.666667,
    "auc_roc":0.985915,
    "n_predicted":139,
    "n_actual":71,
    "true_positives":70,
    "false_positives":69,
    "true_negatives":163,
    "false_negatives":1,
    "false_positive_rate":0.297414,
    "false_negative_rate":0.014085,
    "detector":"OCSVMDetector"
  },
  {
    "model":"LevelShiftADDetector",
    "precision":0.605263,
    "recall":0.323944,
    "f1":0.422018,
    "auc_roc":0.629644,
    "n_predicted":38,
    "n_actual":71,
    "true_positives":23,
    "false_positives":15,
    "true_negatives":217,
    "false_negatives":48,
    "false_positive_rate":0.064655,
    "false_negative_rate":0.676056,
    "detector":"LevelShiftADDetector"
  },
  {
    "model":"VolatilityShiftADDetector",
    "precision":0.320611,
    "recall":0.591549,
    "f1":0.415842,
    "auc_roc":0.768698,
    "n_predicted":131,
    "n_actual":71,
    "true_positives":42,
    "false_positives":89,
    "true_negatives":143,
    "false_negatives":29,
    "false_positive_rate":0.383621,
    "false_negative_rate":0.408451,
    "detector":"VolatilityShiftADDetector"
  },
  {
    "model":"QuantileADDetector",
    "precision":0.21875,
    "recall":0.098592,
    "f1":0.135922,
    "auc_roc":0.500668,
    "n_predicted":32,
    "n_actual":71,
    "true_positives":7,
    "false_positives":25,
    "true_negatives":207,
    "false_negatives":64,
    "false_positive_rate":0.107759,
    "false_negative_rate":0.901408,
    "detector":"QuantileADDetector"
  },
  {
    "model":"ECODDetector",
    "precision":0.625,
    "recall":0.140845,
    "f1":0.229885,
    "auc_roc":0.773555,
    "n_predicted":16,
    "n_actual":71,
    "true_positives":10,
    "false_positives":6,
    "true_negatives":226,
    "false_negatives":61,
    "false_positive_rate":0.025862,
    "false_negative_rate":0.859155,
    "detector":"ECODDetector"
  },
  {
    "model":"COPODDetector",
    "precision":0.5,
    "recall":0.112676,
    "f1":0.183908,
    "auc_roc":0.532297,
    "n_predicted":16,
    "n_actual":71,
    "true_positives":8,
    "false_positives":8,
    "true_negatives":224,
    "false_negatives":63,
    "false_positive_rate":0.034483,
    "false_negative_rate":0.887324,
    "detector":"COPODDetector"
  },
  {
    "model":"InterQuartileRangeAD",
    "precision":1.0,
    "recall":0.28169,
    "f1":0.43956,
    "auc_roc":0.640845,
    "n_predicted":20,
    "n_actual":71,
    "true_positives":20,
    "false_positives":0,
    "true_negatives":232,
    "false_negatives":51,
    "false_positive_rate":0.0,
    "false_negative_rate":0.71831,
    "detector":"InterQuartileRangeAD"
  },
  {
    "model":"LOFDetector",
    "precision":1.0,
    "recall":0.225352,
    "f1":0.367816,
    "auc_roc":0.79541,
    "n_predicted":16,
    "n_actual":71,
    "true_positives":16,
    "false_positives":0,
    "true_negatives":232,
    "false_negatives":55,
    "false_positive_rate":0.0,
    "false_negative_rate":0.774648,
    "detector":"LOFDetector"
  },
  {
    "model":"ThresholdADDetector",
    "precision":1.0,
    "recall":0.169014,
    "f1":0.289157,
    "auc_roc":0.809616,
    "n_predicted":12,
    "n_actual":71,
    "true_positives":12,
    "false_positives":0,
    "true_negatives":232,
    "false_negatives":59,
    "false_positive_rate":0.0,
    "false_negative_rate":0.830986,
    "detector":"ThresholdADDetector"
  }
]